Language model created by QuickLM on Thu Feb 27 23:59:52 EST 2020
Copyright (c) 1996-2010 Carnegie Mellon University and Alexander I. Rudnicky

The model is in standard ARPA format, designed by Doug Paul while he was at MITRE.

The code that was used to produce this language model is available in Open Source.
Please visit http://www.speech.cs.cmu.edu/tools/ for more information

The (fixed) discount mass is 0.5. The backoffs are computed using the ratio method.
This model based on a corpus of 6 sentences and 8 words

\data\
ngram 1=8
ngram 2=12
ngram 3=6

\1-grams:
-0.7782 </s> -0.3010
-0.7782 <s> -0.2218
-1.5563 BACKWARD -0.2218
-1.5563 COMMAND -0.2218
-1.5563 FORWARD -0.2218
-1.5563 NO -0.2218
-1.5563 TALK -0.2218
-1.5563 YES -0.2218

\2-grams:
-1.0792 <s> BACKWARD 0.0000
-1.0792 <s> COMMAND 0.0000
-1.0792 <s> FORWARD 0.0000
-1.0792 <s> NO 0.0000
-1.0792 <s> TALK 0.0000
-1.0792 <s> YES 0.0000
-0.3010 BACKWARD </s> -0.3010
-0.3010 COMMAND </s> -0.3010
-0.3010 FORWARD </s> -0.3010
-0.3010 NO </s> -0.3010
-0.3010 TALK </s> -0.3010
-0.3010 YES </s> -0.3010

\3-grams:
-0.3010 <s> BACKWARD </s>
-0.3010 <s> COMMAND </s>
-0.3010 <s> FORWARD </s>
-0.3010 <s> NO </s>
-0.3010 <s> TALK </s>
-0.3010 <s> YES </s>

\end\
